tree
version=v2
num_class=1
num_tree_per_iteration=1
label_index=0
max_feature_idx=21
objective=binary sigmoid:1
feature_names=gender SeniorCitizen Partner Dependents tenure PhoneService MultipleLines InternetService OnlineSecurity OnlineBackup DeviceProtection TechSupport StreamingTV StreamingMovies Contract PaperlessBilling PaymentMethod MonthlyCharges TotalCharges tenure-binned MonthlyCharges-binned TotalCharges-binned
feature_infos=[0:1] [0:1] [0:1] [0:1] [-0.63043478260869568:0.93478260869565222] [0:1] [0:2] [0:2] [0:2] [0:2] [0:2] [0:2] [0:2] [0:2] [0:2] [0:1] [0:3] [-0.95882217621348054:0.88796871405567046] [-0.40634603900549099:2.1199659175320797] [0:2] [0:2] [0:2]
tree_sizes=732 1089 922 1406 816 1206 629 647 895 1080 853 858 725 1178 741 1001 1203 883 683 809 902 815 532 881 685 1203 1219 518 491 536 956 592 729 665 601 948 853 467 795 806 831 1101 1150 1013 882 345 694 957 687 338 399 880 466 1210

Tree=0
num_leaves=8
num_cat=0
split_feature=8 18 18 10 18 20 18
split_gain=554.106 239.323 31.1665 30.3401 13.6027 4.42299 0.274428
threshold=1.0000000180025095e-35 -0.062215069111671024 -0.39750498856635147 1.0000000180025095e-35 0.49894402610076177 1.0000000180025095e-35 1.194940064377995
decision_type=2 2 2 2 2 2 2
left_child=1 -1 -2 5 -3 -4 -6
right_child=2 4 3 -5 6 -7 -8
leaf_value=-0.72456844579696045 -1.0135121352455907 -0.9565796433004683 -1.0189412591255942 -1.2125592970638053 -1.0189412591255942 -1.0930341435898001 -1.0557303243787819
leaf_count=1178 126 630 183 1751 449 476 278
internal_value=0 0.745192 -0.744901 -0.805729 0.053092 -0.262474 -0.10945
internal_count=5071 2535 2536 2410 1357 659 727
shrinkage=1


Tree=1
num_leaves=13
num_cat=0
split_feature=11 4 7 4 4 7 4 20 8 4 15 15
split_gain=422.109 177.857 83.5263 47.6639 25.0081 23.6347 17.1011 6.18299 6.0608 9.41494 4.16335 0.0453925
threshold=1.0000000180025095e-35 -0.076086956521739121 1.0000000180025095e-35 -0.27173913043478254 -0.51086956521739124 1.0000000180025095e-35 0.66304347826086973 1.0000000180025095e-35 1.0000000180025095e-35 -0.59782608695652162 1.0000000180025095e-35 1.0000000180025095e-35
decision_type=2 2 2 2 2 2 2 2 2 2 2 2
left_child=1 2 4 8 -1 -3 10 -5 -2 -10 -7 -6
right_child=3 5 -4 7 11 6 -8 -9 9 -11 -12 -13
leaf_value=0.15071060617220453 0.023446707680678795 -0.11053363103272598 0.30439131891628995 -0.089086411055795497 -0.010224065215782707 0 -0.053289683057799388 -0.20371025313389157 0 -0.091305279509123191 0.098766494014044318 0
leaf_count=270 171 340 878 612 111 114 220 1280 127 386 400 162
internal_value=0 0.625267 1.11093 -0.677657 0.306458 -0.0480631 0.130279 -0.87332 -0.073167 -0.25071 0.394337 -0.0213024
internal_count=5071 2495 1421 2576 543 1074 734 1892 684 513 514 273
shrinkage=0.198533


Tree=2
num_leaves=11
num_cat=0
split_feature=11 16 19 19 20 16 19 19 19 19
split_gain=278.775 78.4313 22.1292 17.3906 38.2277 14.9252 11.0187 6.26635 2.11139 0.631708
threshold=1.0000000180025095e-35 1.5000000000000002 1.0000000180025095e-35 1.0000000180025095e-35 1.0000000180025095e-35 2.5000000000000004 1.0000000180025095e-35 1.5000000000000002 1.5000000000000002 1.5000000000000002
decision_type=2 2 2 2 2 2 2 2 2 2
left_child=1 6 -3 -2 7 9 -1 -5 -8 -4
right_child=3 2 5 4 -6 -7 8 -9 -10 -11
leaf_value=-0.07657547101194366 -0.17478048612617345 0 0.21561526463102429 0.13830823385481447 -0.1078222594352999 0.043859731556068392 0.042253254314444703 -0 -0 0.068895898273255207
leaf_count=331 1066 217 810 96 1268 340 310 146 232 255
internal_value=0 0.474854 0.745805 -0.593599 -0.353796 0.835142 -0.0195709 0.329812 0.102353 0.977919
internal_count=5071 2495 1622 2576 1510 1405 873 242 542 1065
shrinkage=0.198533


Tree=3
num_leaves=18
num_cat=0
split_feature=8 4 4 17 16 17 17 4 17 18 17 17 11 17 18 4 18
split_gain=206.59 83.6873 39.0449 31.32 25.4817 23.6204 10.3192 13.565 7.22327 6.6169 3.6858 3.08679 1.98439 1.57026 0.239538 0.22448 0.120371
threshold=1.0000000180025095e-35 -0.40217391304347822 -0.14130434782608695 0.23050379572118701 1.5000000000000002 -0.087876696572348686 0.15504945939728557 -0.55434782608695643 0.42097998619737748 0.99707968597521013 0.057510927076144469 -0.36116862203818717 1.5000000000000002 -0.56958822176213453 0.35565929184205552 0.46739130434782611 -0.39912900359759373
decision_type=2 2 2 2 2 2 2 2 2 2 2 2 2 2 2 2 2
left_child=1 5 6 10 12 11 7 16 -4 -6 -3 -1 15 -9 -12 -5 -2
right_child=2 3 8 4 9 -7 -8 13 -10 -11 14 -13 -14 -15 -16 -17 -18
leaf_value=0.069001635442573442 0.025277783195360237 -0.073608105784484623 -0.17714776892862125 0.017540409147167906 0.15911875176899928 0.22717383767991037 0.087347853194147965 -0.11676850566067856 -0.042799808705847715 0 0.002465660398685825 -0 -0.046655480955181884 -0 -0.019336829461024364 -0 0
leaf_count=255 121 497 1323 112 360 565 96 345 396 138 142 86 177 150 108 95 105
internal_value=0 0.393211 -0.540983 0.0370861 0.343544 0.870249 -0.0407267 -0.21034 -0.766395 0.657116 -0.260733 0.236137 -0 -0.465957 -0 0 0.0839142
internal_count=5071 2535 2536 1629 882 906 817 721 1719 498 747 341 384 495 250 207 226
shrinkage=0.198533


Tree=4
num_leaves=10
num_cat=0
split_feature=14 15 3 4 4 4 1 4 4
split_gain=322.11 31.6429 10.3764 4.58264 2.98209 1.69003 1.42176 1.00766 1.13441
threshold=1.0000000180025095e-35 1.0000000180025095e-35 1.0000000180025095e-35 -0.59782608695652162 0.57608695652173925 0.076086956521739149 1.0000000180025095e-35 0.076086956521739149 -0.42391304347826081
decision_type=2 2 2 2 2 2 2 2 2
left_child=1 3 4 -1 -3 -4 7 8 -5
right_child=-2 2 5 6 -6 -7 -8 -9 -10
leaf_value=0.064799050761757515 -0.15328795975008033 0.13954244570534569 0.037047832393365586 -0 0 -0 0.024833315511610981 0 -0.04800408491506062
leaf_count=185 2280 1427 232 276 101 99 104 107 260
internal_value=0 0.438441 0.597722 0.035406 0.677717 0.0527592 -0 -0.0885984 -0.135241
internal_count=5071 2791 1859 932 1528 331 747 643 536
shrinkage=0.198533


Tree=5
num_leaves=15
num_cat=0
split_feature=4 20 4 7 7 12 13 4 20 7 4 3 4 4
split_gain=92.7452 50.038 27.4497 24.3946 18.8558 7.0364 5.60231 4.50822 7.47613 7.56629 4.48479 2.88883 0.998142 0.0226699
threshold=-0.40217391304347822 1.0000000180025095e-35 0.66304347826086973 1.5000000000000002 1.0000000180025095e-35 1.5000000000000002 1.5000000000000002 0.31521739130434789 1.5000000000000002 1.0000000180025095e-35 -0.59782608695652162 1.0000000180025095e-35 0.90217391304347838 0.7934782608695653
decision_type=2 2 2 2 2 2 2 2 2 2 2 2 2 2
left_child=3 2 5 4 -1 -2 -7 8 -3 -10 -5 -8 13 -4
right_child=1 7 12 10 -6 6 11 -9 9 -11 -12 -13 -14 -15
leaf_value=0.023521261706553845 -0 -0.10151484836849026 -0.0055860255269489338 0.0076409766366460985 0.16072212912766282 0 0.1224976360471486 -0.14000854044903627 -0.063860490851363666 0.021637685100998075 -0.071501408827354507 0 -0.11130141177716645 0
leaf_count=472 177 639 151 122 600 139 414 1013 373 282 200 112 215 162
internal_value=0 -0.237037 0.0739784 0.432838 0.565072 0.327768 0.42944 -0.480621 -0.290774 -0.0325345 -0.0271209 0.531468 -0.348262 -0
internal_count=5071 3677 1370 1394 1072 842 665 2307 1294 655 322 526 528 313
shrinkage=0.198533


Tree=6
num_leaves=7
num_cat=0
split_feature=14 6 18 3 13 18
split_gain=189.195 17.5062 14.5285 8.4442 2.36553 0.329911
threshold=1.0000000180025095e-35 1.0000000180025095e-35 -0.34855877769200511 1.0000000180025095e-35 1.5000000000000002 -0.1088818328793859
decision_type=2 2 2 2 2 2
left_child=1 2 -1 -3 -2 -4
right_child=4 3 5 -5 -6 -7
leaf_value=0.072877237840290307 -0.16756674194238153 0.1155503789655509 -0.014230658358072685 0 -0.074841649140901342 0
leaf_count=588 1244 1088 493 256 1036 366
internal_value=0 0.31531 0.101845 0.500983 -0.655342 -0.0353806
internal_count=5071 2791 1447 1344 2280 859
shrinkage=0.198533


Tree=7
num_leaves=7
num_cat=0
split_feature=14 15 14 20 20 9
split_gain=134.816 15.0774 3.30931 5.23828 2.40918 1.94363
threshold=1.0000000180025095e-35 1.0000000180025095e-35 1.5000000000000002 1.0000000180025095e-35 1.0000000180025095e-35 1.0000000180025095e-35
decision_type=2 2 2 2 2 2
left_child=1 5 3 -2 -3 -1
right_child=2 4 -4 -5 -6 -7
leaf_value=0.019942775987812602 -0 0.10354255317274193 -0.15529392488155974 -0.092041244137541237 0.041731788878000532 -0.019567007644213524
leaf_count=487 351 700 1234 695 1159 445
internal_value=0 0.25291 -0.587734 -0.307796 0.358422 0
internal_count=5071 2791 2280 1046 1859 932
shrinkage=0.198533


Tree=8
num_leaves=11
num_cat=0
split_feature=14 4 12 16 16 14 4 15 11 16
split_gain=97.7271 14.662 14.4314 5.53291 2.89899 2.21071 1.68633 1.42856 1.32933 0.11752
threshold=1.0000000180025095e-35 -0.59782608695652162 1.5000000000000002 2.5000000000000004 1.5000000000000002 1.5000000000000002 -0.29347826086956513 1.0000000180025095e-35 1.0000000180025095e-35 1.5000000000000002
decision_type=2 2 2 2 2 2 2 2 2 2
left_child=1 8 3 6 -4 -2 7 -3 -1 -8
right_child=5 2 4 -5 -6 -7 9 -9 -10 -11
leaf_value=0.13438604456024889 -0.052839764065033448 -0 0 -0.052701826903650335 0.077535270471589549 -0.14229862459939976 -0.0088398885943861555 0.039677554520251193 0 0
leaf_count=301 1046 201 261 368 640 1234 285 353 135 247
internal_value=0 0.205486 0.107962 -0.00186654 0.312651 -0.528155 0.0389627 0.125516 0.569779 -0
internal_count=5071 2791 2355 1454 901 2280 1086 554 436 532
shrinkage=0.198533


Tree=9
num_leaves=14
num_cat=0
split_feature=11 18 7 17 18 15 6 18 17 18 17 17 18
split_gain=41.4636 14.9911 14.0344 12.3569 15.8415 6.72432 4.20072 3.92191 3.70226 3.66669 2.93582 2.52666 0.699511
threshold=1.0000000180025095e-35 -0.34855877769200511 1.0000000180025095e-35 0.12606395215090874 -0.39912900359759373 1.0000000180025095e-35 1.5000000000000002 0.60785498929460957 -0.46054750402576478 1.4276111685625645 0.62617897400506106 -0.38785369220151816 0.072265027600972975
decision_type=2 2 2 2 2 2 2 2 2 2 2 2 2
left_child=1 8 11 4 -2 -4 -7 12 -1 -8 -9 -3 -5
right_child=3 2 5 7 -6 6 9 10 -10 -11 -12 -13 -14
leaf_value=0 0.00036457910898122185 -0 -0 0.057866225429779476 -0.11114069659073594 0 0.080280021177048008 -0.067155905544568253 0.11947670816794018 -0 0 -0.065776225112637809 0
leaf_count=131 122 218 303 98 1593 342 627 360 349 102 266 423 137
internal_value=0 0.162806 0.0427188 -0.292149 -0.444612 0.175555 0.258525 -0 0.483987 0.35348 -0.170776 -0.219611 0.176652
internal_count=5071 2495 2015 2576 1715 1374 1071 861 480 729 626 641 235
shrinkage=0.198533


Tree=10
num_leaves=11
num_cat=0
split_feature=14 17 17 4 4 1 17 4 4 4
split_gain=59.5783 14.6325 14.0271 10.4677 7.88578 1.79888 1.86276 1.13054 0.133802 0.572748
threshold=1.0000000180025095e-35 0.15504945939728557 0.58201058201058198 -0.59782608695652162 1.0000000180025095e-35 1.0000000180025095e-35 -0.0105820105820105 -0.55434782608695643 0.141304347826087 0.55434782608695665
decision_type=2 2 2 2 2 2 2 2 2 2
left_child=1 3 -2 -1 -3 6 7 -5 -6 -10
right_child=2 4 -4 5 8 -7 -8 -9 9 -11
leaf_value=0.061442420733270192 -0.11156671110161398 0.091918785612441503 0 -0 -0 0 0 -0.045719609242299453 0.023075493709897827 -0
leaf_count=368 1912 723 368 147 106 183 221 695 215 133
internal_value=0 0.159353 -0.438006 0 0.330468 -0.0896291 -0.134922 -0.188836 0 0.0412658
internal_count=5071 2791 2280 1614 1177 1246 1063 842 454 348
shrinkage=0.198533


Tree=11
num_leaves=11
num_cat=0
split_feature=14 17 17 8 8 15 17 17 17 9
split_gain=41.5746 11.0232 9.85766 1.43681 1.38963 0.956117 0.18249 1.13218 0.111601 0.024545
threshold=1.0000000180025095e-35 0.58201058201058198 0.004140786749482428 1.5000000000000002 1.0000000180025095e-35 1.0000000180025095e-35 -0.21854152288934894 -0.046008741660915557 -0.93627789279963169 1.5000000000000002
decision_type=2 2 2 2 2 2 2 2 2 2
left_child=2 4 6 5 -2 -4 8 -8 -1 -10
right_child=1 -3 3 -5 -6 -7 7 -9 9 -11
leaf_value=-0 -0.016638630288466686 0 0 0 -0.1227147749078004 0.062983585301997755 -0.041933612116007254 0 0.0058926945768123162 -0
leaf_count=90 471 368 229 290 1441 955 132 167 772 156
internal_value=0 -0.378739 0.132748 0.244973 -0.497221 0.28009 -0 -0.0522822 0 0.024468
internal_count=5071 2280 2791 1474 1912 1184 1317 299 1018 928
shrinkage=0.198533


Tree=12
num_leaves=9
num_cat=0
split_feature=11 17 13 9 9 17 21 17
split_gain=16.3791 6.36994 4.9739 2.85555 0.505223 0.444452 1.76429 0.7145
threshold=1.0000000180025095e-35 0.46882907752472974 1.5000000000000002 1.5000000000000002 1.5000000000000002 -0.077754773406947322 1.5000000000000002 -0.4945939728548423
decision_type=2 2 2 2 2 2 2 2
left_child=2 -2 5 -4 -3 7 -7 -1
right_child=1 4 3 -5 -6 6 -8 -9
leaf_value=0 -0.054937061583170015 0.025926118630731416 0.062710449249993111 0 -0 0.023629484701792328 -0 -0.018749556889194403
leaf_count=154 2131 144 616 475 301 644 175 431
internal_value=0 -0.193821 0.103643 0.21795 0 0 0.0448526 -0.0258535
internal_count=5071 2576 2495 1091 445 1404 819 585
shrinkage=0.198533


Tree=13
num_leaves=16
num_cat=0
split_feature=4 17 15 4 10 17 17 5 6 5 4 4 17 4 17
split_gain=17.0712 14.9346 5.81798 4.28347 3.17204 2.35556 2.28028 2.08933 1.41538 0.868522 0.301199 0.258393 0.0210762 0.178271 0.135941
threshold=-0.48913043478260865 0.42097998619737748 1.0000000180025095e-35 0.66304347826086973 1.0000000180025095e-35 0.057510927076144469 0.49275362318840576 1.0000000180025095e-35 1.5000000000000002 1.0000000180025095e-35 -0.42391304347826081 0.90217391304347838 0.27743271221532084 0.40217391304347833 0.15504945939728557
decision_type=2 2 2 2 2 2 2 2 2 2 2 2 2 2 2
left_child=2 4 -1 6 5 9 -3 -6 -8 -2 -9 -5 13 14 -7
right_child=1 3 -4 11 7 12 8 10 -10 -11 -12 -13 -14 -15 -16
leaf_value=0 -0 0 0.071214123581617564 0 -0 0 0 -0 0.072476471483169519 -0.045488264351426125 -0.080629482660511897 -0.021681109983577907 -0 -0 0.018044643874390857
leaf_count=448 183 209 600 245 215 132 85 86 341 487 1461 160 171 86 162
internal_value=0 -0.0952298 0.2289 0.105714 -0.216018 -0.0659123 0.216755 -0.341537 0.308417 -0.175627 -0.3856 -0 0 0.0162967 0.0538285
internal_count=5071 4023 1048 1040 2983 1221 635 1762 426 670 1547 405 551 380 294
shrinkage=0.198533


Tree=14
num_leaves=9
num_cat=0
split_feature=8 4 4 15 13 3 4 4
split_gain=12.5387 7.69721 7.04777 1.49568 1.70805 0.804921 0.0267545 0.216757
threshold=1.0000000180025095e-35 0.032608695652173919 -0.48913043478260865 1.0000000180025095e-35 1.5000000000000002 1.0000000180025095e-35 -0.59782608695652162 -0.18478260869565213
decision_type=2 2 2 2 2 2 2 2
left_child=2 6 -1 -4 -5 -6 -2 -8
right_child=1 -3 3 4 5 -7 7 -9
leaf_value=0.051558605349833565 0 -0.069966273144110608 -0.021651609459626929 -0 0.029883531512461845 -0 -0.010315701084885106 0
leaf_count=693 150 1512 462 553 649 178 622 252
internal_value=0 -0.176255 0.0887083 0 0.0430235 0.116557 -0 -0.0150698
internal_count=5071 2536 2535 1842 1380 827 1024 874
shrinkage=0.198533


Tree=15
num_leaves=13
num_cat=0
split_feature=9 6 18 18 1 18 7 13 5 18 18 18
split_gain=9.07959 5.37022 4.71196 3.14744 3.51682 2.34924 1.48688 1.86549 1.32865 0.56976 0.963167 0.0697132
threshold=1.0000000180025095e-35 1.0000000180025095e-35 -0.062215069111671024 -0.39912900359759373 1.0000000180025095e-35 -0.26436488631894778 1.0000000180025095e-35 1.5000000000000002 1.0000000180025095e-35 -0.38653742517150463 -0.37751431026697924 0.26902573663282703
decision_type=2 2 2 2 2 2 2 2 2 2 2 2
left_child=1 5 -3 -2 8 9 -4 -8 -5 -1 -11 -7
right_child=3 2 6 4 -6 11 7 -9 -10 10 -12 -13
leaf_value=-0 0 0.072335317966346749 -0.024353625778070393 0 0 -0.030056212190034664 -0 0.041821378550051955 -0.045784383887583616 0.04942221659418021 0 -0
leaf_count=87 121 470 243 176 381 368 155 306 2193 139 228 204
internal_value=0 0.0943437 0.204183 -0.122313 -0.159727 -0 0 0.10506 -0.21029 0.0772603 0.11812 -0.127887
internal_count=5071 2200 1174 2871 2750 1026 704 461 2369 454 367 572
shrinkage=0.198533


Tree=16
num_leaves=16
num_cat=0
split_feature=4 17 4 7 17 1 4 17 4 17 4 6 4 4 17
split_gain=7.84143 11.5616 4.67714 4.20536 4.12178 3.01591 0.979046 0.884811 0.896316 0.785843 0.845587 0.519393 0.0471376 0.299548 0.0418119
threshold=-0.59782608695652162 0.057510927076144469 0.90217391304347838 1.0000000180025095e-35 0.49275362318840576 1.0000000180025095e-35 -0.29347826086956513 0.27743271221532084 0.032608695652173919 -0.0105820105820105 -0.55434782608695643 1.5000000000000002 -0.097826086956521716 0.59782608695652184 0.44306418219461691
decision_type=2 2 2 2 2 2 2 2 2 2 2 2 2 2 2
left_child=3 5 4 -1 6 9 11 12 -9 10 -2 -3 -8 -14 -10
right_child=1 2 -4 -5 -6 -7 7 8 14 -11 -12 -13 13 -15 -16
leaf_value=-0 -0 0 -0.055812110652163002 0.081237129552222495 0.049209098016177483 0 -0 0 -0.042574263310601199 -0 -0.058724697008001113 0.032149148949564894 0.017445270648946801 -0 -0
leaf_count=150 157 240 261 297 659 212 98 140 232 124 1820 219 259 111 92
internal_value=0 -0.0408154 0.0478638 0.257422 0.0957241 -0.208317 0 -0.0249216 -0.104638 -0.249197 -0.266842 0.089977 0 0.029593 -0.180046
internal_count=5071 4624 2311 447 2050 2313 1391 932 464 2101 1977 459 468 370 324
shrinkage=0.198533


Tree=17
num_leaves=11
num_cat=0
split_feature=14 6 16 16 4 3 18 18 18 16
split_gain=18.9827 4.18577 4.05641 4.07436 2.93518 1.02527 0.890166 1.23235 0.85455 1.2836
threshold=1.5000000000000002 1.0000000180025095e-35 1.5000000000000002 2.5000000000000004 -0.59782608695652162 1.0000000180025095e-35 -0.040979069869059213 0.89383456894417179 -0.1088818328793859 1.0000000180025095e-35
decision_type=2 2 2 2 2 2 2 2 2 2
left_child=1 4 6 5 -1 -4 -3 -8 9 -6
right_child=-2 2 3 -5 8 -7 7 -9 -10 -11
leaf_value=0.025919304950412617 -0.090520760725064306 0.022956737687664042 0.06133526740879728 -0 0 0 -0.032959893513853741 0 -0 -0.032603855240715962
leaf_count=339 1234 164 752 250 152 160 347 225 639 809
internal_value=0 0.0533542 0.131711 0.209123 -0.00104705 0.274158 -0 -0.0662143 -0.0782892 -0.123742
internal_count=5071 3837 1898 1162 1939 912 736 572 1600 961
shrinkage=0.198533


Tree=18
num_leaves=8
num_cat=0
split_feature=14 13 14 7 21 7 21
split_gain=13.6747 3.71951 3.02387 0.873883 0.917186 0.404608 0.291244
threshold=1.5000000000000002 1.5000000000000002 1.0000000180025095e-35 1.0000000180025095e-35 1.5000000000000002 1.5000000000000002 1.5000000000000002
decision_type=2 2 2 2 2 2 2
left_child=1 2 3 -1 5 -5 -3
right_child=-2 6 -4 4 -6 -7 -8
leaf_value=-0.00032843133922174484 -0.079751240870336179 0.032914756878015435 -0.04907387670985313 0.023978153400741706 -0 0 0
leaf_count=642 1234 982 580 674 140 371 448
internal_value=0 0.0446547 -0 0.0133434 0.0631124 0.0945477 0.13541
internal_count=5071 3837 2407 1827 1185 1045 1430
shrinkage=0.198533


Tree=19
num_leaves=10
num_cat=0
split_feature=14 4 13 7 12 18 14 4 18
split_gain=9.5919 2.80864 3.72084 2.75354 2.18037 0.783321 0.610152 0.0150386 0.0123183
threshold=1.5000000000000002 -0.59782608695652162 1.5000000000000002 1.0000000180025095e-35 1.5000000000000002 1.4276111685625645 1.0000000180025095e-35 -0.55434782608695643 0.21073597739487596
decision_type=2 2 2 2 2 2 2 2 2
left_child=1 3 6 -1 -4 -6 7 -3 -9
right_child=-2 2 4 -5 5 -7 -8 8 -10
leaf_value=-0 -0.069720181486419647 0 -0 0.062548848792201073 0.035851587109581813 -0 -0.040905111469365048 -0.0028791819240779506 0
leaf_count=147 1234 228 442 291 795 134 578 950 272
internal_value=0 0.0333588 0 0.189393 0.0939652 0.156801 -0.0651164 -0.00623788 -0.0105319
internal_count=5071 3837 3399 438 1371 929 2028 1450 1222
shrinkage=0.198533


Tree=20
num_leaves=11
num_cat=0
split_feature=4 17 17 5 4 17 17 17 16 17
split_gain=3.65232 4.76323 4.41387 0.584025 0.545067 1.43555 0.36402 0.334388 0.385362 0.228794
threshold=-0.27173913043478254 0.15504945939728557 0.45870715435932835 1.0000000180025095e-35 -0.59782608695652162 -0.21854152288934894 0.004140786749482428 0.72187715665976537 1.5000000000000002 -0.68138946399815936
decision_type=2 2 2 2 2 2 2 2 2 2
left_child=1 4 3 -2 -1 9 -7 8 -4 -6
right_child=2 -3 7 -5 5 6 -8 -9 -10 -11
leaf_value=0.0095374675401374131 -0 0.04642214567456112 -0 -0.035357724366026959 -0.00056690906579909099 -0.047211841529692371 -0 -0 0.021681947274114922 0.012017126455625289
leaf_count=379 328 507 332 2114 360 159 150 163 302 277
internal_value=0 0.0649335 -0.0743889 -0.158497 -0 -0.0450646 -0.157961 0.0196395 0.0582507 0
internal_count=5071 1832 3239 2442 1325 946 309 797 634 637
shrinkage=0.198533


Tree=21
num_leaves=10
num_cat=0
split_feature=14 17 17 3 6 17 17 17 17
split_gain=6.14669 2.36425 2.14805 0.611298 0.277938 0.492886 0.00374136 0.182956 0.000125581
threshold=1.5000000000000002 0.12606395215090874 0.64918334483551876 1.0000000180025095e-35 1.0000000180025095e-35 -0.095238095238095302 -0.21025994939038414 -0.68138946399815936 0.050149528410397999
decision_type=2 2 2 2 2 2 2 2 2
left_child=1 4 -2 -3 5 -1 7 -6 -8
right_child=2 3 -4 -5 6 -7 8 -9 -10
leaf_value=-0.014621979739551271 -0.075903691770725104 0.022118929703641158 0 0 -0 0 -0.0004683731174214106 0.011163280516021416 0
leaf_count=1042 1076 1297 158 357 194 356 142 322 127
internal_value=0 0.0235405 -0.293902 0.0900116 -0.0120997 -0.0385885 0 0.00645454 -0
internal_count=5071 3837 1234 1654 2183 1398 785 516 269
shrinkage=0.198533


Tree=22
num_leaves=6
num_cat=0
split_feature=16 16 9 13 12
split_gain=2.48389 3.45144 2.39757 1.20347 0.593496
threshold=1.5000000000000002 2.5000000000000004 1.0000000180025095e-35 1.5000000000000002 1.5000000000000002
decision_type=2 2 2 2 2
left_child=3 2 -2 -1 -3
right_child=1 4 -4 -5 -6
leaf_value=-0.02949314574105202 0.033272164749712604 -0.017531982651905902 -0 -0 0
leaf_count=1245 1037 967 673 961 188
internal_value=0 0.0361149 0.105412 -0.0851624 -0.0503606
internal_count=5071 2865 1710 2206 1155
shrinkage=0.198533


Tree=23
num_leaves=11
num_cat=0
split_feature=9 6 18 8 18 18 18 20 18 18
split_gain=1.58812 1.87976 2.31156 1.26689 2.62937 1.05166 0.940971 0.826356 0.209224 0.172942
threshold=1.0000000180025095e-35 1.0000000180025095e-35 -0.062215069111671024 1.0000000180025095e-35 -0.39912900359759373 -0.26436488631894778 0.18600434041685479 1.5000000000000002 0.26902573663282703 -0.38653742517150463
decision_type=2 2 2 2 2 2 2 2 2 2
left_child=1 5 -3 -2 -5 9 -4 -6 -7 -1
right_child=3 2 6 4 7 8 -8 -9 -10 -11
leaf_value=-0 0 0.042907546021677859 -0.025133585363329013 0 -0.046293693485537607 -0.025483831510605695 0.012735182017560678 -0 -0 0.0097054569362607802
leaf_count=87 976 470 175 120 1432 368 529 343 204 367
internal_value=0 0.0339298 0.105466 -0.0584191 -0.12289 -0 0 -0.194166 -0.101 0.0159922
internal_count=5071 2200 1174 2871 1895 1026 704 1775 572 454
shrinkage=0.198533


Tree=24
num_leaves=8
num_cat=0
split_feature=4 1 12 20 4 4 20
split_gain=1.91822 1.63924 1.27742 1.0689 1.21921 0.846412 0.0525939
threshold=-0.59782608695652162 1.0000000180025095e-35 1.5000000000000002 1.5000000000000002 -0.42391304347826081 0.64130434782608703 1.5000000000000002
decision_type=2 2 2 2 2 2 2
left_child=-1 2 3 4 -2 -3 -4
right_child=1 5 6 -5 -6 -7 -8
leaf_value=0.024560228249263263 -0 0.01796036079282072 0.00096051065953056279 -0 -0.046579805722497029 -0 -0.0056694232294825899
leaf_count=447 350 583 1016 810 1190 177 498
internal_value=0 -0.0255318 -0.0618385 -0.10666 -0.165285 0.0332568 -0
internal_count=5071 4624 3864 2350 1540 760 1514
shrinkage=0.198533


Tree=25
num_leaves=16
num_cat=0
split_feature=14 6 18 3 9 18 8 18 18 18 8 18 18 18 7
split_gain=3.2119 1.27183 1.21435 1.53014 1.16581 0.719102 0.753847 0.145683 0.110623 0.180421 0.104225 0.0843212 0.0796668 0.0661143 0.34419
threshold=1.5000000000000002 1.0000000180025095e-35 -0.062215069111671024 1.0000000180025095e-35 1.0000000180025095e-35 -0.34855877769200511 1.5000000000000002 -0.30931296153341969 0.18600434041685479 1.4815386632098695 1.0000000180025095e-35 0.26902573663282703 0.041751023202295484 -0.39163523020230995 1.5000000000000002
decision_type=2 2 2 2 2 2 2 2 2 2 2 2 2 2 2
left_child=1 5 3 10 -2 13 7 -7 12 -10 -3 -9 -4 -1 -15
right_child=4 2 8 -5 -6 6 -8 11 9 -11 -12 -13 -14 14 -16
leaf_value=-0 0 0.042626716459386607 0 -0 -0.058803893272140577 -0 0 -0.02530464942152812 0.0085411662546192643 -0 0 -0 -0.010573965693532033 0.015775142474903435 -0
leaf_count=209 229 418 130 136 1005 164 333 637 836 123 105 182 150 284 130
internal_value=0 0.0147673 0.063465 0.140693 -0.223237 -0.00749379 -0.0597641 -0.0960677 0 0.0243484 0.195116 -0.109373 -0.0129804 0.00108333 0.0291371
internal_count=5071 3837 1898 659 1234 1939 1316 983 1239 959 523 819 280 623 414
shrinkage=0.198533


Tree=26
num_leaves=16
num_cat=0
split_feature=14 17 17 4 17 1 4 4 18 18 18 18 17 18 4
split_gain=2.20431 1.62543 1.59465 1.38356 0.899941 0.674514 0.681402 0.251033 0.236516 0.282422 0.607095 0.216327 0.150858 0.0311965 0.0176309
threshold=1.5000000000000002 0.61237635150678627 0.49275362318840576 -0.59782608695652162 0.66022544283413853 1.0000000180025095e-35 -0.42391304347826081 0.33695652173913049 -0.28531686499555753 0.26902573663282703 0.48633788251744176 1.0359031125741003 -0.37405106970324348 -0.33093493744264962 0.1630434782608696
decision_type=2 2 2 2 2 2 2 2 2 2 2 2 2 2 2
left_child=2 -2 3 12 7 6 13 -4 -8 14 -11 -12 -1 -5 -10
right_child=1 -3 4 5 -6 -7 8 -9 9 10 11 -13 -14 -15 -16
leaf_value=0 -0.057705806001553332 0 0.045286170291507784 -0.0027317467916826367 -0 0 0 0 -0.027092338627499987 0.01203912108796997 -0.025113829381070631 0 0.029617152122894629 0.0032018394238584212 -0
leaf_count=228 1043 191 223 401 135 491 153 207 780 199 285 88 206 276 165
internal_value=0 -0.189704 0.0101604 -0 0.119719 -0.0346825 -0.0580301 0.166885 -0.0902747 -0.0984338 -0 -0.0936691 0.0926443 -0 -0.13026
internal_count=5071 1234 3837 3272 565 2838 2347 430 1670 1517 572 373 434 677 945
shrinkage=0.198533


Tree=27
num_leaves=6
num_cat=0
split_feature=14 13 6 16 21
split_gain=1.51922 2.51503 0.934289 1.42225 0.383521
threshold=1.0000000180025095e-35 1.5000000000000002 1.0000000180025095e-35 2.5000000000000004 1.5000000000000002
decision_type=2 2 2 2 2
left_child=2 -2 -1 4 -4
right_child=1 -3 3 -5 -6
leaf_value=-0 -0.048832241862193725 0 0.025455048776982705 -0 0
leaf_count=1447 1244 1036 863 177 304
internal_value=0 -0.0891104 0.0219978 0.0651539 0.102813
internal_count=5071 2280 2791 1344 1167
shrinkage=0.198533


Tree=28
num_leaves=5
num_cat=0
split_feature=14 9 4 6
split_gain=1.19404 0.851363 0.662684 0.5153
threshold=1.5000000000000002 1.0000000180025095e-35 -0.59782608695652162 1.0000000180025095e-35
decision_type=2 2 2 2
left_child=2 -2 -1 -4
right_child=1 -3 3 -5
leaf_value=0.016878530772848059 0 -0.04254022130632501 -0.0078441904321940262 0.0038944166868804969
leaf_count=438 229 1005 1600 1799
internal_value=0 -0.143362 0.00710794 -0
internal_count=5071 1234 3837 3399
shrinkage=0.198533


Tree=29
num_leaves=6
num_cat=0
split_feature=16 16 4 4 3
split_gain=0.534248 1.33126 1.24794 1.17815 0.298548
threshold=1.5000000000000002 2.5000000000000004 -0.24999999999999997 -0.29347826086956513 1.0000000180025095e-35
decision_type=2 2 2 2 2
left_child=3 4 -3 -1 -2
right_child=1 2 -4 -5 -6
leaf_value=0 0.015560909291507824 0 -0.035051428754673562 -0.018797376598300383 -0
leaf_count=372 1365 634 521 1834 345
internal_value=0 0.0158497 -0.0252405 -0.0411669 0.0644379
internal_count=5071 2865 1155 2206 1710
shrinkage=0.198533


Tree=30
num_leaves=12
num_cat=0
split_feature=15 18 14 18 18 18 14 18 12 18 18
split_gain=1.18254 1.00705 0.490125 0.284562 0.235815 0.549491 0.1623 0.0570021 0.0105324 0.0117582 0.00110168
threshold=1.0000000180025095e-35 0.041751023202295484 1.0000000180025095e-35 0.17829208966310792 0.55204858936452228 0.79812692078010983 1.5000000000000002 0.25636861499919894 1.0000000180025095e-35 -0.17277189507260723 1.4815386632098695
decision_type=2 2 2 2 2 2 2 2 2 2 2
left_child=2 6 8 -3 7 -6 -2 -5 9 -1 -7
right_child=1 3 -4 4 5 10 -8 -9 -10 -11 -12
leaf_value=-0.0035266848875640149 0.015231845674654998 -0.018527039875082141 -0.029496025168380291 0 -0.023398945586945056 0.00076151621176096505 -0 0.014579754433897557 0 0 -0
leaf_count=299 1280 170 1141 100 239 530 108 295 424 209 276
internal_value=0 0.0251521 -0.0614462 -0 0 -0 0.0719626 0.0572372 -0 -0.00998193 0
internal_count=5071 2998 2073 1610 1440 1045 1388 395 932 508 806
shrinkage=0.198533


Tree=31
num_leaves=7
num_cat=0
split_feature=1 4 12 4 4 4
split_gain=0.717457 1.04297 0.483718 0.770401 0.00305598 0.0226058
threshold=1.0000000180025095e-35 0.64130434782608703 1.5000000000000002 -0.48913043478260865 0.92391304347826098 -0.55434782608695643
decision_type=2 2 2 2 2 2
left_child=2 -2 3 -1 5 -4
right_child=1 -3 4 -5 -6 -7
leaf_value=0 0.02113340035022819 -0 -0 -0.017418298978606445 -0 0.0022757571713787335
leaf_count=727 645 177 110 1958 150 1304
internal_value=0 0.0553499 -0.0212335 -0.0465379 0 0.0037509
internal_count=5071 822 4249 2685 1564 1414
shrinkage=0.198533


Tree=32
num_leaves=9
num_cat=0
split_feature=17 6 8 11 17 17 17 17
split_gain=0.832779 0.420266 0.60865 0.155115 0.0537427 0.028289 0.0054968 0.00089383
threshold=0.12606395215090874 1.5000000000000002 1.5000000000000002 1.0000000180025095e-35 -0.92523579480101203 0.23050379572118701 -0.38785369220151816 -0.46790890269151131
decision_type=2 2 2 2 2 2 2 2
left_child=3 -2 5 6 -5 -3 7 -1
right_child=1 2 -4 4 -6 -7 -8 -9
leaf_value=-0 -0 0 -0 -0 -0.017935481150994938 0.018557606982608943 -0.0012030442465191793 0.0011066931421286465
leaf_count=271 635 123 583 593 1122 805 824 115
internal_value=0 0.0293751 0.0547893 -0.038453 -0.0715252 0.0866827 -0 0
internal_count=5071 2146 1511 2925 1715 928 1210 386
shrinkage=0.198533


Tree=33
num_leaves=8
num_cat=0
split_feature=14 9 13 16 16 7 7
split_gain=0.415726 0.578896 0.260818 0.338379 0.382381 0.605576 0.0042092
threshold=1.5000000000000002 1.0000000180025095e-35 1.5000000000000002 1.5000000000000002 2.5000000000000004 1.0000000180025095e-35 1.5000000000000002
decision_type=2 2 2 2 2 2 2
left_child=2 -2 3 6 5 -5 -1
right_child=1 -3 -4 4 -6 -7 -8
leaf_value=-0.011392868710621203 0 -0.030884914004773924 0.0061438603323633869 -0 -0 0.018692422571501912 -0
leaf_count=620 229 1005 1430 275 747 560 205
internal_value=0 -0.0882265 0.000379351 -0 0 0.0483056 -0.0533879
internal_count=5071 1234 3837 2407 1582 835 825
shrinkage=0.198533


Tree=34
num_leaves=7
num_cat=0
split_feature=15 16 0 16 14 12
split_gain=0.630401 0.417361 1.05744 0.177767 0.16896 0.00177089
threshold=1.0000000180025095e-35 1.5000000000000002 1.0000000180025095e-35 2.5000000000000004 1.0000000180025095e-35 1.0000000180025095e-35
decision_type=2 2 2 2 2 2
left_child=4 -2 -3 -4 5 -1
right_child=1 2 3 -5 -6 -7
leaf_value=-0.00081451579291155676 -0 -0 0.023526147043810477 0 -0.022028962242378498 0
leaf_count=508 1265 884 619 230 1141 424
internal_value=0 0.0115653 0.0388926 0.0985699 -0.0496571 -0
internal_count=5071 2998 1733 849 2073 932
shrinkage=0.198533


Tree=35
num_leaves=12
num_cat=0
split_feature=17 18 18 15 17 18 17 1 17 17 17
split_gain=0.632756 1.02138 0.727827 0.30775 0.289544 0.215992 0.154995 0.0842997 0.224336 0.324597 0.0566305
threshold=0.49275362318840576 -0.34056978895087164 1.8673696782556768 1.0000000180025095e-35 -0.93443754313319516 -0.39163523020230995 -0.93259719346675851 1.0000000180025095e-35 -0.0105820105820105 0.089717046238785375 0.42097998619737748
decision_type=2 2 2 2 2 2 2 2 2 2 2
left_child=1 4 3 -2 -1 -6 -3 8 -8 -10 -11
right_child=2 6 -4 -5 5 -7 7 -9 9 10 -12
leaf_value=-0 -0 0 -0 0.022322232592419305 -0 0.013613834416319423 -0.023752997056540028 -0 1.991250504609265e-05 -0.011057380825239025 -0
leaf_count=104 143 217 95 574 224 569 1425 500 224 804 192
internal_value=0 -0.0239019 0.0478224 0.0902448 2.13037e-05 0.0431626 -0.0574227 -0.0611951 -0.0712402 -0 -0.0453944
internal_count=5071 4259 812 717 897 793 3362 3145 2645 1220 996
shrinkage=0.198533


Tree=36
num_leaves=11
num_cat=0
split_feature=17 1 21 21 17 5 17 17 17 17
split_gain=0.348577 0.657466 0.353303 0.453008 0.594292 0.238801 0.257786 0.17651 1.64602 0.0729135
threshold=0.12606395215090874 1.0000000180025095e-35 1.5000000000000002 1.0000000180025095e-35 0.34828617437313097 1.0000000180025095e-35 0.004140786749482428 0.27743271221532084 0.45410628019323679 -0.0013802622498273883
decision_type=2 2 2 2 2 2 2 2 2 2
left_child=1 5 3 -2 -5 -1 -7 -4 -9 -3
right_child=2 9 7 4 -6 6 -8 8 -10 -11
leaf_value=0 -0 0.0085016488451879566 0 0 0.025603039048818794 -0.016923420141139414 -0 -0.044174873757223503 0 -0
leaf_count=424 575 220 207 477 387 1898 296 194 306 87
internal_value=0 -0.0296907 0.0103164 0.0402918 0.0679409 -0.056596 -0.0699073 -0 -0.0427354 0
internal_count=5071 2925 2146 1439 864 2618 2194 707 500 307
shrinkage=0.198533


Tree=37
num_leaves=5
num_cat=0
split_feature=15 7 7 12
split_gain=0.287919 0.355821 0.0809638 0.0130716
threshold=1.0000000180025095e-35 1.0000000180025095e-35 1.5000000000000002 1.5000000000000002
decision_type=2 2 2 2
left_child=3 -2 -3 -1
right_child=1 2 -4 -5
leaf_value=-0.0081374808104892459 -0 0.0074516743069307275 -0 -0
leaf_count=1560 962 1728 308 513
internal_value=0 0.00683905 0.0329139 -0.0342209
internal_count=5071 2998 2036 2073
shrinkage=0.198533


Tree=38
num_leaves=10
num_cat=0
split_feature=4 13 18 15 18 18 18 4 4
split_gain=0.369826 0.399073 0.166615 0.142897 0.015871 0.381642 0.11682 0.0703066 0.251885
threshold=-0.59782608695652162 1.5000000000000002 1.2430050832398736 1.0000000180025095e-35 0.041751023202295484 0.17829208966310792 -0.30627612625078277 0.92391304347826098 0.25000000000000006
decision_type=2 2 2 2 2 2 2 2 2
left_child=3 2 -2 -1 6 -6 -3 8 -7
right_child=1 4 -4 -5 5 7 -8 -9 -10
leaf_value=0 -0.0095724247617085569 -0 0 0.015922267639003347 -0.025201715152387373 -0 0.0085665151898181684 -0 0.010575042568885605
leaf_count=194 2596 97 87 253 103 318 339 187 897
internal_value=0 -0.0164711 -0.0419046 0.0463358 0 -0 0.013154 0 0.0199907
internal_count=5071 4624 2683 447 1941 1505 436 1402 1215
shrinkage=0.198533


Tree=39
num_leaves=10
num_cat=0
split_feature=14 17 17 17 17 17 17 17 17
split_gain=0.164229 0.619898 0.129418 0.374704 0.0668098 0.265627 0.150348 0.0495421 0.0178038
threshold=1.5000000000000002 0.64918334483551876 0.49275362318840576 0.66022544283413853 0.27743271221532084 0.12606395215090874 -0.21854152288934894 -0.93719806763285007 0.033586381412468426
decision_type=2 2 2 2 2 2 2 2 2
left_child=2 -2 4 -4 5 6 7 -1 -8
right_child=1 -3 3 -5 -6 -7 8 -9 -10
leaf_value=-0 -0.027644278351756185 0 0.014747726232135012 -0 -0.0046140691032438737 0.01049613399108143 -0.0093969815136158118 0.0031450720619224221 -0
leaf_count=132 1076 158 430 135 608 481 467 1314 270
internal_value=0 -0.05636 0 0.0334309 -0 0 -0 0 -0.0346475
internal_count=5071 1234 3837 565 3272 2664 2183 1446 737
shrinkage=0.198533


Tree=40
num_leaves=10
num_cat=0
split_feature=4 17 4 17 17 17 17 18 17
split_gain=0.26275 0.609431 0.339559 0.334624 0.720084 0.383913 0.184299 0.0916081 0.0530167
threshold=-0.59782608695652162 0.49275362318840576 0.90217391304347838 -0.21854152288934894 -0.0105820105820105 -0.46790890269151131 0.27743271221532084 -0.38653742517150463 -0.68138946399815936
decision_type=2 2 2 2 2 2 2 2 2
left_child=7 3 -3 5 -5 8 -6 -1 -2
right_child=1 2 -4 4 6 -7 -8 -9 -10
leaf_value=0 -0.011780394606900918 0.010456903159608302 -0 -0.038574562718429108 0 0.010674972108078849 -0.0076438617178790661 0.015981999694548697 -0
leaf_count=270 1051 659 149 412 959 473 704 177 217
internal_value=0 -0.0146254 0.00113742 -0.0393179 -0.0580296 -0 -0 0.0373622 -0.0425684
internal_count=5071 4624 808 3816 2075 1741 1663 447 1268
shrinkage=0.198533


Tree=41
num_leaves=14
num_cat=0
split_feature=4 18 18 15 18 6 18 4 4 4 4 18 4
split_gain=0.195441 0.956966 0.493846 0.428666 0.93854 1.06404 0.227002 0.120744 0.428186 0.297048 0.106304 0.0776367 0.0524134
threshold=-0.14130434782608695 0.21073597739487596 0.41028591403644205 1.0000000180025095e-35 0.041751023202295484 1.0000000180025095e-35 0.76795519757635788 0.90217391304347838 0.77173913043478282 0.55434782608695665 0.51086956521739146 0.48633788251744176 0.61956521739130455
decision_type=2 2 2 2 2 2 2 2 2 2 2 2 2
left_child=3 10 -3 -1 5 -5 11 8 9 -8 -2 -4 -13
right_child=1 2 6 4 -6 -7 7 -9 -10 -11 -12 12 -14
leaf_value=-0 -0.030162476720366763 0.018142926213878405 -0 0 -0 0.031614674625779757 0.0063035504672171866 -0.012080297544146808 0.024069535927944655 -0.014687486737914911 -0 -0.018114342068071013 0
leaf_count=891 624 308 120 702 91 479 272 305 296 309 273 313 88
internal_value=0 -0.0240186 0 0.00710825 0.0419637 0.0769143 -0.0184047 0 0.0186955 -0 -0.138055 -0.0634379 -0.0819577
internal_count=5071 2908 2011 2163 1272 1181 1703 1182 877 581 897 521 401
shrinkage=0.198533


Tree=42
num_leaves=15
num_cat=0
split_feature=1 15 18 18 17 17 18 18 18 18 17 17 17 18
split_gain=0.0926201 0.669806 0.489099 0.0837441 0.373853 0.367715 0.5546 0.0843654 0.219219 0.094687 0.0206147 0.00637112 0.0435523 0.00631675
threshold=1.0000000180025095e-35 1.0000000180025095e-35 1.0222701254060038 -0.1861354268319326 0.45870715435932835 -0.0105820105820105 -0.35549907511251572 1.1336280350146379 0.5138150516334824 0.26902573663282703 0.72187715665976537 -0.28019323671497581 -0.73844030365769486 -0.39750498856635147
decision_type=2 2 2 2 2 2 2 2 2 2 2 2 2 2
left_child=1 13 -2 5 7 11 -7 8 9 -5 -6 12 -3 -1
right_child=2 3 -4 4 10 6 -8 -9 -10 -11 -12 -13 -14 -15
leaf_value=-0 0.012418154075973409 -0 -0 -0.0066806266611789877 0.0032968877473631489 -0 0.031440394970135684 0 -0.02732953868458167 0 -0 -0.0033426116161713736 0.0062077012254823233 -0.013094563000912291
leaf_count=94 647 210 175 543 401 104 170 126 308 148 95 86 180 1784
internal_value=0 -0.012648 0.00565451 0 -0 0.02431 0.0882198 -0.0512062 -0.0583525 -0 0 -0 0 -0.0623592
internal_count=5071 4249 822 2371 1621 750 274 1125 999 691 496 476 390 1878
shrinkage=0.198533


Tree=43
num_leaves=13
num_cat=0
split_feature=18 16 18 18 18 18 16 18 18 18 16 18
split_gain=0.0626392 0.752372 1.06562 0.286156 0.205174 0.0613105 1.04718 0.0702469 0.0558153 0.449499 0.0176441 0.0121504
threshold=-0.045785571755247077 1.5000000000000002 0.89383456894417179 0.020303829179836013 -0.10612901816275103 -0.37527127605342486 1.0000000180025095e-35 -0.39163523020230995 0.005214326288652313 0.92093304397220954 2.5000000000000004 -0.38291070102101749
decision_type=2 2 2 2 2 2 2 2 2 2 2 2
left_child=4 2 3 -2 5 7 -7 -1 -3 10 -10 -9
right_child=1 8 -4 -5 -6 6 -8 11 9 -11 -12 -13
leaf_value=-0 0 -0 0 -0.032054405332495386 0.015474540507846905 0.0059415226059786365 -0.014839379361472544 0.0089611490681086609 0.013954852365300845 -0 0 0
leaf_count=272 127 96 689 738 230 235 1288 207 542 321 204 122
internal_value=0 -0.0136949 -0.0722001 -0.14169 0 -0 -0.0166453 0.000787446 0 0.0180987 0.0636839 0.0338748
internal_count=5071 2717 1554 865 2354 2124 1523 601 1163 1067 746 329
shrinkage=0.198533


Tree=44
num_leaves=11
num_cat=0
split_feature=14 17 17 7 17 17 17 17 17 17
split_gain=0.0268425 0.359435 0.0382257 0.149243 0.197966 0.0586009 0.430176 0.0316656 0.0138323 0.186012
threshold=1.5000000000000002 0.64918334483551876 -0.93719806763285007 1.0000000180025095e-35 0.27743271221532084 -0.21854152288934894 0.033586381412468426 -0.46790890269151131 0.49275362318840576 0.66022544283413853
decision_type=2 2 2 2 2 2 2 2 2 2
left_child=2 -2 -1 5 -5 7 -7 -4 -6 -10
right_child=1 -3 3 4 8 6 -8 -9 9 -11
leaf_value=-0 -0.0198049739740674 0 -0 0.0085577870003144853 -0.0013905221582658249 -0.021708048995024414 0 0.0037921477366108887 0.0091509844609134264 -0
leaf_count=132 1076 158 341 1268 603 306 143 479 430 135
internal_value=0 -0.0231529 0 0.00777174 0.0207449 -0 -0.0323173 0 0 0.00822365
internal_count=5071 1234 3837 3705 2436 1269 449 820 1168 565
shrinkage=0.198533


Tree=45
num_leaves=3
num_cat=0
split_feature=6 9
split_gain=0.057182 0.205776
threshold=1.0000000180025095e-35 1.0000000180025095e-35
decision_type=2 2
left_child=-1 -2
right_child=1 -3
leaf_value=-0.0026149092566819933 0.0063336579760836786 -0
leaf_count=2415 1174 1482
internal_value=0 0.00128075
internal_count=5071 2656
shrinkage=0.198533


Tree=46
num_leaves=8
num_cat=0
split_feature=4 6 17 4 4 4 17
split_gain=0.119485 0.350668 0.0310422 0.0216512 0.217025 0.17319 0.00562549
threshold=-0.59782608695652162 1.0000000180025095e-35 -0.046008741660915557 0.90217391304347838 0.20652173913043481 -0.032608695652173905 0.45410628019323679
decision_type=2 2 2 2 2 2 2
left_child=2 6 -1 4 5 -3 -2
right_child=1 3 -4 -5 -6 -7 -8
leaf_value=0 -0.0085969294639402939 0.00022206449300507576 0.0097078649545145682 -0 0.0084433584954320649 -0.011090472925645856 -0
leaf_count=269 1900 817 178 323 1110 302 172
internal_value=0 -0.0106973 0.0231516 0 0.00804599 -0 -0.0405264
internal_count=5071 4624 447 2552 2229 1119 2072
shrinkage=0.198533


Tree=47
num_leaves=12
num_cat=0
split_feature=18 15 18 18 18 3 18 18 9 18 18
split_gain=0.0571437 0.323431 0.301106 0.338737 0.175614 0.117214 0.0996792 0.120954 0.0974063 0.0880214 0.0656623
threshold=-0.045785571755247077 1.0000000180025095e-35 0.21073597739487596 0.41028591403644205 0.041751023202295484 1.0000000180025095e-35 -0.37336324045618069 -0.17277189507260723 1.0000000180025095e-35 0.76795519757635788 0.55204858936452228
decision_type=2 2 2 2 2 2 2 2 2 2 2
left_child=1 8 4 -4 -2 6 -3 -8 -1 10 -5
right_child=2 5 3 9 -6 -7 7 -9 -10 -11 -12
leaf_value=0 -0 0.01937678106915643 0.014869481919183705 -0 -0.019914234907882158 -0 -0 0.010487023264349089 -0.0075741811644597264 0 -0.013403136074498679
leaf_count=384 311 272 322 220 381 259 488 208 743 1182 301
internal_value=0 0.00295849 -0.0127377 0 -0.0641185 0.0382391 0.0488168 0 -0 -0.0134887 -0.0415053
internal_count=5071 2354 2717 2025 692 1227 968 696 1127 1703 521
shrinkage=0.198533


Tree=48
num_leaves=8
num_cat=0
split_feature=4 4 14 4 4 4 4
split_gain=0.122115 0.0769977 0.127417 0.121568 0.0163228 0.00673089 0.030881
threshold=0.55434782608695665 0.18478260869565219 1.5000000000000002 -0.076086956521739121 -0.59782608695652162 0.77173913043478282 0.90217391304347838
decision_type=2 2 2 2 2 2 2
left_child=1 3 -3 4 -1 -2 -7
right_child=5 2 -4 -5 -6 6 -8
leaf_value=0.0026937890900100856 -0.0098029874423040432 0.0094562629131978299 -0 -0.007357205321488266 -0 0 -0.0072921391580500145
leaf_count=447 504 600 213 594 1896 428 389
internal_value=0 0.000230982 0.0281536 -0 0.00156648 -0.034584 -0
internal_count=5071 3750 813 2937 2343 1321 817
shrinkage=0.198533


Tree=49
num_leaves=3
num_cat=0
split_feature=6 15
split_gain=0.0148134 0.0604013
threshold=1.0000000180025095e-35 1.0000000180025095e-35
decision_type=2 2
left_child=-1 -2
right_child=1 -3
leaf_value=-0.0013409312634257377 -0 0.0029363487112887905
leaf_count=2415 897 1759
internal_value=0 0
internal_count=5071 2656
shrinkage=0.198533


Tree=50
num_leaves=4
num_cat=0
split_feature=1 15 14
split_gain=0.0119996 0.30479 0.0354159
threshold=1.0000000180025095e-35 1.0000000180025095e-35 1.0000000180025095e-35
decision_type=2 2 2
left_child=1 -1 -2
right_child=2 -3 -4
leaf_value=-0.00805693203277273 0.0032951923400740021 0 -0
leaf_count=1878 588 2371 234
internal_value=0 -0.00469625 0
internal_count=5071 4249 822
shrinkage=0.198533


Tree=51
num_leaves=11
num_cat=0
split_feature=18 9 18 18 18 18 18 18 18 18
split_gain=0.0354325 0.249716 0.302412 0.200299 0.245555 0.11571 0.0756405 0.348851 0.0624456 0.0529098
threshold=-0.045785571755247077 1.0000000180025095e-35 -0.39163523020230995 0.21073597739487596 0.41028591403644205 0.041751023202295484 -0.39912900359759373 -0.21684606085322686 0.76795519757635788 0.55204858936452228
decision_type=2 2 2 2 2 2 2 2 2 2
left_child=1 2 -1 5 -5 -2 -3 -8 9 -6
right_child=3 6 -4 4 8 -7 7 -9 -10 -11
leaf_value=-0 -0 0 0.010185315571823728 0.012664151656385231 -0 -0.016217380601963673 -0.014796544671723824 0 0 -0.011570697679359093
leaf_count=110 311 121 1050 322 220 381 681 392 1182 301
internal_value=0 0.00230634 0.0326131 -0.010047 0 -0.0521598 -0 -0.0268811 -0.0113539 -0.0349902
internal_count=5071 2354 1160 2717 2025 692 1194 1073 1703 521
shrinkage=0.198533


Tree=52
num_leaves=5
num_cat=0
split_feature=4 1 4 4
split_gain=0.0840094 0.123898 0.00487493 0.0209357
threshold=0.55434782608695665 1.0000000180025095e-35 0.77173913043478282 0.90217391304347838
decision_type=2 2 2 2
left_child=1 -1 -2 -4
right_child=2 -3 3 -5
leaf_value=-0 -0.0081653048494593865 0.0062476273903875361 0 -0.0060214850700691927
leaf_count=3144 504 606 428 389
internal_value=0 0 -0.028752 -0
internal_count=5071 3750 1321 817
shrinkage=0.198533


Tree=53
num_leaves=16
num_cat=0
split_feature=18 17 17 17 18 18 18 18 17 18 17 17 17 18 18
split_gain=0.0218209 0.672471 0.196965 0.729009 0.211063 0.522618 0.119156 0.565831 0.121556 0.0662948 0.024687 0.00748606 0.00304047 4.36503e-05 0.00395011
threshold=-0.045785571755247077 0.34828617437313097 0.58201058201058198 0.27743271221532084 0.24669006801928431 0.57149307426773677 -0.29874593996242177 -0.1088818328793859 -0.93535771796641343 -0.39163523020230995 -0.93535771796641343 0.12606395215090874 -0.56958822176213453 1.8673696782556768 0.80849003014987553
decision_type=2 2 2 2 2 2 2 2 2 2 2 2 2 2 2
left_child=1 6 3 4 11 -6 8 10 -1 -10 -8 12 -2 14 -4
right_child=2 -3 13 -5 5 -7 7 -9 9 -11 -12 -13 -14 -15 -16
leaf_value=-0 0 0.025852724614521948 -0 -0.016766747388251031 0.026566259869333548 -0 0 0 -0 0.0073137517123619813 -0.016418244069677228 0 -0.0034002106571057473 -0 0.0016764145015967353
leaf_count=126 246 181 85 782 327 491 86 214 226 788 733 89 266 95 336
internal_value=0 0 -0.00811345 -0.0292479 0 0.0543619 -0 -0.0302417 0 0.0255424 -0.0801634 -0.00219141 -0.0133032 0 0.000766652
internal_count=5071 2354 2717 2201 1419 818 2173 1033 1140 1014 819 601 512 516 421
shrinkage=0.198533


end of trees

feature importances:
TotalCharges=105
MonthlyCharges=101
tenure=86
Contract=26
PaymentMethod=22
PaperlessBilling=19
InternetService=17
MultipleLines=16
OnlineBackup=13
SeniorCitizen=12
StreamingMovies=11
OnlineSecurity=10
MonthlyCharges-binned=10
Dependents=9
StreamingTV=9
TechSupport=7
tenure-binned=6
TotalCharges-binned=6
PhoneService=5
DeviceProtection=2
gender=1

parameters:
[boosting: gbdt]
[objective: binary]
[metric: binary,auc]
[tree_learner: serial]
[device_type: cpu]
[data: ]
[valid: ]
[num_iterations: 100]
[learning_rate: 0.198533]
[num_leaves: 921]
[num_threads: -1]
[max_depth: 56]
[min_data_in_leaf: 85]
[min_sum_hessian_in_leaf: 0.001]
[bagging_fraction: 1]
[bagging_freq: 0]
[bagging_seed: 3]
[feature_fraction: 0.438489]
[feature_fraction_seed: 2]
[early_stopping_round: 0]
[max_delta_step: 0]
[lambda_l1: 9.7729]
[lambda_l2: 4.97905]
[min_gain_to_split: 0]
[drop_rate: 0.1]
[max_drop: 50]
[skip_drop: 0.5]
[xgboost_dart_mode: 0]
[uniform_drop: 0]
[drop_seed: 4]
[top_rate: 0.2]
[other_rate: 0.1]
[min_data_per_group: 59]
[max_cat_threshold: 32]
[cat_l2: 17]
[cat_smooth: 92]
[max_cat_to_onehot: 4]
[top_k: 20]
[monotone_constraints: ]
[feature_contri: ]
[forcedsplits_filename: ]
[refit_decay_rate: 0.9]
[verbosity: -1]
[max_bin: 255]
[min_data_in_bin: 3]
[bin_construct_sample_cnt: 200000]
[histogram_pool_size: -1]
[data_random_seed: 1]
[output_model: LightGBM_model.txt]
[snapshot_freq: -1]
[input_model: ]
[output_result: LightGBM_predict_result.txt]
[initscore_filename: ]
[valid_data_initscores: ]
[pre_partition: 0]
[enable_bundle: 1]
[max_conflict_rate: 0]
[is_enable_sparse: 1]
[sparse_threshold: 0.8]
[use_missing: 1]
[zero_as_missing: 0]
[two_round: 0]
[save_binary: 0]
[enable_load_from_binary_file: 1]
[header: 0]
[label_column: ]
[weight_column: ]
[group_column: ]
[ignore_column: ]
[categorical_feature: ]
[predict_raw_score: 0]
[predict_leaf_index: 0]
[predict_contrib: 0]
[num_iteration_predict: -1]
[pred_early_stop: 0]
[pred_early_stop_freq: 10]
[pred_early_stop_margin: 10]
[convert_model_language: ]
[convert_model: gbdt_prediction.cpp]
[num_class: 1]
[is_unbalance: 0]
[scale_pos_weight: 1]
[sigmoid: 1]
[boost_from_average: 1]
[reg_sqrt: 0]
[alpha: 0.9]
[fair_c: 1]
[poisson_max_delta_step: 0.7]
[tweedie_variance_power: 1.5]
[max_position: 20]
[label_gain: ]
[metric_freq: 1]
[is_provide_training_metric: 0]
[eval_at: ]
[num_machines: 1]
[local_listen_port: 12400]
[time_out: 120]
[machine_list_filename: ]
[machines: ]
[gpu_platform_id: -1]
[gpu_device_id: -1]
[gpu_use_dp: 0]

end of parameters

pandas_categorical:[]
